{"ip":0,"fr":60,"v":"5.1.20","assets":[],"layers":[{"ty":4,"nm":"Path 3","ip":0,"st":0,"ind":2,"hix":1,"ks":{"o":{"a":0,"k":100},"or":{"a":0,"k":[0,0,0]},"a":{"a":0,"k":[14.5,12.5,0]},"p":{"s":true,"x":{"a":1,"k":[{"t":0,"s":[282.1400146484375],"e":[281.93000042209434],"i":{"x":[0.495],"y":[0.76]},"o":{"x":[0.68],"y":[0.245]}},{"t":16,"s":[281.93000042209434],"e":[281.93000042209434],"i":{"x":[1],"y":[1]},"o":{"x":[0],"y":[0]}},{"t":32}]},"y":{"a":1,"k":[{"t":0,"s":[200],"e":[199.81900036387444],"i":{"x":[0.515],"y":[0.955]},"o":{"x":[0.455],"y":[0.03]}},{"t":16,"s":[199.81900036387444],"e":[199.81900036387444],"i":{"x":[1],"y":[1]},"o":{"x":[0],"y":[0]}},{"t":32}]}},"rx":{"a":0,"k":0},"ry":{"a":0,"k":0},"rz":{"a":0,"k":0},"s":{"a":1,"k":[{"t":0,"s":[100,100],"e":[117.39999999999999,117.39999999999999],"i":{"x":[0.515,0.515],"y":[0.955,0.955]},"o":{"x":[0.455,0.455],"y":[0.03,0.03]}},{"t":16,"s":[117.39999999999999,117.39999999999999],"e":[100,100],"i":{"x":[0.515,0.515],"y":[0.955,0.955]},"o":{"x":[0.455,0.455],"y":[0.03,0.03]}},{"t":32}]}},"shapes":[{"ty":"gr","nm":"Path 3 shape group","it":[{"ty":"sh","ks":{"a":0,"k":{"c":true,"v":[[176.353744,123.313211],[165.082209,121.400391],[178.206543,142.626465],[188.935918,120.19451],[177.40332,122.984863]],"i":[[0,0],[2.109958000000006,-1.0669070000000005],[-13.224411000000003,-0.416324000000003],[7.205631000000011,7.992502000000016],[2.877929999999992,-4.9768060000000105]],"o":[[-4.6314330000000155,-4.497503999999992],[-7.176261000000011,3.628698],[2.0747069999999894,0.06531499999999824],[-1.9260519999999985,-2.136381],[0,0]]}}},{"ty":"st","o":{"a":0,"k":0},"w":{"a":0,"k":0},"c":{"a":0,"k":[0,0,0,0]},"lc":3,"lj":1,"ml":1},{"ty":"fl","o":{"a":0,"k":100},"r":2,"c":{"a":0,"k":[0.13333333333333333,0.8941176470588236,0.13333333333333333,1]}},{"ty":"tr","o":{"a":0,"k":100},"a":{"a":0,"k":[0,0]},"s":{"a":0,"k":[100,100]},"p":{"a":0,"k":[-162,-118]},"r":{"a":0,"k":0}}]}],"op":32},{"ty":4,"nm":"loving doodle","ip":0,"st":0,"ind":1,"hix":2,"ks":{"o":{"a":0,"k":100},"or":{"a":0,"k":[0,0,0]},"a":{"a":0,"k":[158.5,113,0]},"p":{"s":true,"x":{"a":0,"k":282.6400146484375},"y":{"a":0,"k":191.97999572753903}},"rx":{"a":0,"k":0},"ry":{"a":0,"k":0},"rz":{"a":0,"k":0},"s":{"a":0,"k":[100,100,100]}},"shapes":[{"ty":"gr","nm":"loving doodle shape group","it":[{"ty":"sh","ks":{"a":0,"k":{"c":true,"v":[[100.594169,30.8918411],[102.452334,23.0529213],[99.5172774,27.6169173],[97.0558533,36.128049],[96.464619,42.2851072],[98.3051882,45.0861378]],"i":[[-1.556096399999987,4.5645880000000005],[1.0548960000000136,0.21075079999999957],[0.3240647000000081,-0.7325955999999998],[0.5554555000000079,-2.9022622999999967],[-0.1354912999999982,-2.0660675999999967],[-1.0807039000000032,-0.9729461000000015]],"o":[[0.2179000000000002,-0.6393559999999994],[-1.1173629999999974,-0.22347859999999997],[-1.197132400000001,2.7057193999999996],[-0.3868244999999888,2.0207795000000033],[0.10411120000000551,1.5877340999999987],[0,-4.822698300000006]]}}},{"ty":"st","o":{"a":0,"k":0},"w":{"a":0,"k":0},"c":{"a":0,"k":[0,0,0,0]},"lc":3,"lj":1,"ml":1},{"ty":"fl","o":{"a":0,"k":100},"r":2,"c":{"a":0,"k":[0,0,0,1]}},{"ty":"tr","o":{"a":0,"k":100},"a":{"a":0,"k":[0,0]},"s":{"a":0,"k":[100,100]},"p":{"a":0,"k":[54.153,44.924]},"r":{"a":0,"k":0}}]},{"ty":"gr","nm":"loving doodle shape group","it":[{"ty":"sh","ks":{"a":0,"k":{"c":true,"v":[[23.7820686,47.3029371],[19.7984578,50.706067],[7.99576041,60.8480976],[2.9517534,67.1190268],[1.02689072,68.6712488],[0.00271178671,66.3878223],[3.61049341,60.4294643],[8.80916628,55.4150251],[15.1181085,50.7090214],[21.5561864,46.3019992]],"i":[[0.5723526999999997,-1.8488398000000004],[1.1711263999999986,-0.910829899999996],[3.70337169,-3.6371156000000013],[1.6668883200000004,-2.099665200000004],[0.7976721100000002,0.10783429999999328],[-0.02790516511,0.65823180000001],[-1.4620525400000002,1.5457223000000013],[-1.7957270399999992,1.5826519000000019],[-2.186399399999999,1.4662501000000034],[-2.232710100000002,1.304055500000004]],"o":[[-0.463997599999999,1.498452499999999],[-4.096418800000002,3.186870600000006],[-1.9221908799999996,1.8878374999999963],[-0.40670296000000006,0.5122865000000019],[-0.8751534769999999,-0.11787889999999379],[0.09559003379,-2.244724599999998],[1.6446235499999995,-1.7380513999999962],[1.9771106200000013,-1.7421875],[2.146916599999999,-1.4396606999999975],[1.0517871999999997,-0.6142119000000008]]}}},{"ty":"sh","ks":{"a":0,"k":{"c":true,"v":[[166.974612,33.0722153],[171.965551,34.2075982],[182.222487,38.6028885],[198.835534,49.0411444],[202.187732,51.2407255],[204.294727,53.1076142],[200.800534,52.773135],[200.061497,52.3148599],[165.751138,35.0239899],[165.231682,33.6431831]],"i":[[-0.6352540000000033,-0.019955400000000623],[-1.612544000000014,-0.5206318999999979],[-3.331360999999987,-1.6607805000000013],[-5.151985999999994,-4.0048162000000005],[-1.1710810000000151,-0.6844466000000011],[-0.28875199999998813,-0.8935330999999991],[0.5254089999999962,0.32613959999999764],[0,0],[12.399348000000003,3.8961161000000004],[-0.3465020000000152,0.5840728999999953]],"o":[[1.7098859999999831,0.053909999999994795],[3.5471799999999973,1.1455097999999992],[5.840523999999988,2.9111315000000033],[1.0770139999999913,0.8369428000000028],[0.7495639999999923,0.43842689999999607],[0.7334889999999916,2.271361800000001],[0,0],[-10.961848000000003,-6.793832999999999],[-0.6605570000000114,-0.20759759999999972],[0.3756750000000011,-0.6329193999999987]]}}},{"ty":"sh","ks":{"a":0,"k":{"c":true,"v":[[23.2831944,37.8259376],[21.8923092,38.8968195],[15.9345651,41.2727831],[5.12630244,46.2878124],[4.36054086,45.0831446],[5.96327684,43.5617414],[11.2398805,40.8729156],[16.7095634,38.8807295],[22.228112,37.0866892],[22.3081941,37.0828126]],"i":[[0.09234220000000093,-0.811990300000005],[0.528286099999999,-0.22198310000000276],[1.9659511999999992,-0.8417479000000014],[3.80854641,-1.1855981],[-0.23300604000000025,0.5977154000000056],[-0.5637435399999999,0.3858630000000005],[-1.8059458100000008,0.7738122000000018],[-1.8357419999999998,0.6436019000000002],[-1.8321664999999996,0.08223789999999553],[0,0]],"o":[[-0.0792578000000006,0.6915739999999957],[-1.9713145999999995,0.8280414999999977],[-3.6488390000000006,1.5622244000000052],[-0.8703461399999997,0.2714451000000011],[0.25952464999999947,-0.6671410999999949],[1.62627495,-1.1140869000000038],[1.7904519000000008,-0.7678526999999988],[1.7061287000000007,-0.5983116000000024],[0,0],[0.5831035,-0.02947229999999479]]}}},{"ty":"sh","ks":{"a":0,"k":{"c":true,"v":[[170.086808,27.319588],[171.026506,25.8031729],[174.395391,26.7645737],[183.98316,30.4328758],[185.146341,32.260883],[181.191706,30.7959612]],"i":[[3.724615,1.0474175999999993],[-1.0359860000000083,-0.0775320999999991],[-1.0960169999999891,-0.3291466000000014],[-3.1305419999999913,-1.5617641000000013],[1.3605110000000025,-0.48947769999999835],[0.8095299999999952,0.3490415999999996]],"o":[[-1.743284999999986,-0.49035530000000094],[1.1557509999999809,0.08660220000000152],[3.3510530000000074,1.0061645000000006],[0.46687700000001087,0.23318219999999812],[-0.9429670000000101,0.33909409999999696],[-3.557598000000013,-1.5339694000000001]]}}},{"ty":"st","o":{"a":0,"k":0},"w":{"a":0,"k":0},"c":{"a":0,"k":[0,0,0,0]},"lc":3,"lj":1,"ml":1},{"ty":"fl","o":{"a":0,"k":100},"r":2,"c":{"a":0,"k":[0,0,0,1]}},{"ty":"tr","o":{"a":0,"k":100},"a":{"a":0,"k":[0,0]},"s":{"a":0,"k":[100,100]},"p":{"a":0,"k":[54.153,44.924]},"r":{"a":0,"k":0}}]},{"ty":"gr","nm":"loving doodle shape group","it":[{"ty":"sh","ks":{"a":0,"k":{"c":true,"v":[[121.479347,0.00208712818],[128.701916,1.63284139],[134.631816,4.55881599],[138.904417,15.4696072],[135.76368,28.4639749],[127.715428,38.1914895],[121.735388,40.9553389],[115.191938,42.5813625],[105.722552,37.4669738],[107.062691,36.468686],[113.233798,39.5909331],[126.960358,36.8288654],[135.25664,27.3115792],[137.033207,14.7293541],[131.921275,5.51256375],[108.295132,7.1839978],[105.607437,9.47750578],[104.422169,11.3455093],[104.188083,13.9303082],[100.151348,11.7689352],[95.4432086,14.8727725],[97.3710861,20.000206],[100.388401,20.498756],[102.724521,20.8711095],[100.468507,23.1037463],[95.7689717,21.4884326],[93.9535388,16.3078481],[95.2648992,11.3042356],[100.656607,8.56918873],[103.103985,9.88222503],[103.87033,9.66516724],[104.691562,8.63332619],[109.573857,3.63001057]],"i":[[-4.137608999999998,-0.058792670080000005],[-2.345614000000012,-0.84863359],[-1.66798,-1.4894143000000004],[-0.49101799999999685,-3.795393500000001],[1.7151520000000176,-4.284738400000002],[3.4997299999999996,-2.473746200000001],[2.120131999999998,-0.6859145000000026],[2.304078000000004,0.0035428999999993493],[1.490560000000002,3.4473883],[-1.3579399999999993,-0.853087599999995],[-2.30200099999999,-0.5490283999999974],[-3.9147959999999955,2.1771104000000037],[-1.7557989999999961,4.071244],[0.6832719999999881,4.427860000000001],[3.3813519999999926,2.03695816],[6.491530000000012,-5.71387552],[0.9173589999999905,-0.7479734100000002],[-0.08485199999999793,-0.8222065999999995],[1.8077189999999916,0.8337869999999992],[1.775082999999995,0.16361000000000026],[0.5651902999999976,-1.8267298000000007],[-1.5056909000000047,-0.9997723000000001],[-1.0588785000000058,0.024942299999999307],[-0.3477180000000004,-0.5555610000000009],[0.7004799999999989,-0.21735470000000134],[0.9799600000000055,1.521779900000002],[0.13736639999999056,1.8430611999999975],[-1.041671100000002,1.449922299999999],[-2.0248941999999914,-0.5356665500000002],[-0.8624709999999993,-0.17251790000000078],[-0.450965999999994,0.40353145999999995],[-0.26434900000000994,0.30346519999999977],[-1.8599360000000047,1.3964743900000003]],"o":[[2.517395999999991,0.03563192122],[2.0628699999999753,0.7461918199999997],[3.000107000000014,2.6792235599999996],[0.6123640000000137,4.736076200000001],[-1.6041919999999834,4.007403499999999],[-1.833529999999996,1.2958141999999953],[-2.1536569999999955,0.6966041000000018],[-3.499135999999993,-0.005067999999994299],[-0.6785249999999934,-1.5695861999999963],[1.9700079999999929,1.237615500000004],[4.464559000000008,1.0650977000000026],[3.9133130000000023,-2.176516499999998],[1.771523000000002,-4.1071727],[-0.5788379999999904,-3.7523383],[-7.299707000000012,-4.39668215],[-0.8903600000000012,0.7833084000000001],[-0.5832880000000102,0.4753892200000003],[0.07239200000000778,0.7040272999999999],[-1.4653410000000093,-0.6761157000000004],[-1.889308200000002,-0.17429939999999888],[-0.5390818999999993,1.7429948000000017],[0.932489799999999,0.6191046],[0.5254350000000017,-0.012471200000000238],[0.6153309999999976,0.9825502999999998],[-1.7047682000000037,0.5288371000000005],[-0.9962775999999991,-1.5470192999999988],[-0.13113599999999792,-1.7658586000000014],[1.1081290999999993,-1.5419713799999997],[0.8787900000000093,0.23249828999999878],[0.544423000000009,0.10867735999999972],[0.2863040000000012,-0.2559559800000013],[1.5196349999999939,-1.74477643],[3.3350679999999926,-2.50403326]]}}},{"ty":"sh","ks":{"a":0,"k":{"c":true,"v":[[112.256722,34.5942246],[113.589959,35.5948588],[114.968336,37.3696596],[112.482714,37.7587109]],"i":[[-0.38930399999999565,0.9131356000000039],[-0.21420399999999518,-0.2758176999999975],[0.04312800000001005,-0.8047460000000015],[0.6037950000000052,0.6930262999999997]],"o":[[0.3944800000000015,-0.9246403000000001],[0.42409400000001085,0.5455801000000022],[-0.07101799999999514,1.3285272000000035],[-0.687176000000008,-0.7890021999999988]]}}},{"ty":"sh","ks":{"a":0,"k":{"c":true,"v":[[125.1216,28.3040754],[124.135626,32.817144],[121.851491,36.7729433],[117.227171,34.5417669],[118.996623,34.2392752],[120.864009,34.334704],[124.206138,29.0663064]],"i":[[-0.3136910000000057,0.22446810000000283],[0.7723259999999925,-1.3474088000000002],[0.859714000000011,-1.2111671999999984],[0.09221000000000856,2.066726700000004],[-0.7192919999999958,-0.5908791000000022],[-0.7762449999999887,0.6647016999999948],[-1.079388999999992,1.6937136000000024]],"o":[[0.9769349999999974,1.5223618000000023],[-0.738578000000004,1.2882905000000022],[-1.4271329999999978,2.0109099000000015],[-0.07051199999999369,-1.5820798999999965],[0.7403850000000034,0.6085844999999992],[1.5612270000000024,-1.337805600000003],[0.2139500000000112,-0.3358017999999987]]}}},{"ty":"sh","ks":{"a":0,"k":{"c":true,"v":[[127.906389,28.7935921],[129.098926,31.285533],[130.510728,29.5046218],[131.130753,31.8370056],[126.843405,32.5865597],[126.635353,29.7785381]],"i":[[-0.46479700000000435,-1.3595714],[-1.4690539999999999,0.19504789999999872],[-0.4267279999999971,0.5083985999999996],[0.3750840000000153,-0.8090086000000021],[1.1473849999999999,2.2620087999999967],[-0.21690499999999702,0.9045610000000011]],"o":[[0.2520229999999941,0.7362070999999979],[0.8118450000000053,-0.10768600000000106],[1.435116999999991,-1.7090192999999978],[-0.8266010000000108,1.7830344999999959],[-0.4267279999999971,-0.8414662000000028],[0.1180440000000118,-0.4926245999999992]]}}},{"ty":"sh","ks":{"a":0,"k":{"c":true,"v":[[114.806175,25.3067775],[114.854412,28.4917214],[117.900397,27.3674998],[120.228957,27.2152209],[118.669567,29.7898475],[113.277482,29.8066674],[113.395591,25.7975544]],"i":[[0.31398200000001,-2.0748390999999984],[-0.985800999999995,-0.6145223000000009],[-0.6680180000000036,0.4904765999999974],[-0.06168599999999458,-1.819538999999999],[0.6624630000000025,-0.5343280999999998],[1.0416389999999893,2.1448212000000026],[-0.3750840000000011,1.1773842000000023]],"o":[[-0.13009599999999466,0.8590097000000014],[0.8674000000000035,0.5409360000000021],[0.694035999999997,-0.5096990000000012],[0.03157300000000873,0.9274902000000012],[-1.4135080000000073,1.139539599999999],[-0.567450000000008,-1.1683737],[0.30404300000000717,-0.954221699999998]]}}},{"ty":"sh","ks":{"a":0,"k":{"c":true,"v":[[133.344773,20.6038366],[134.54201,23.7196054],[131.711887,22.223657],[130.608148,19.4830608]],"i":[[-0.5051210000000026,-0.5864662000000003],[0.7413259999999866,-0.9512666999999979],[0.5551980000000185,0.5677966000000012],[-0.4486750000000086,0.7725706999999993]],"o":[[0.5751720000000091,0.6679610999999994],[-0.8666660000000093,1.1118854999999996],[-0.5001999999999782,-0.5114909999999995],[0.7427729999999997,-1.2784313000000012]]}}},{"ty":"sh","ks":{"a":0,"k":{"c":true,"v":[[124.303809,17.7276091],[122.641088,19.9441297],[118.497247,19.528032],[119.007788,16.9386831]],"i":[[-1.4591530000000006,-0.9507417999999994],[1.0708699999999993,-0.10965530000000001],[1.1904779999999988,0.6360013000000002],[-1.635618000000008,0.32600240000000014]],"o":[[1.8801370000000048,1.2248803000000024],[-1.296239,0.1321791999999995],[-1.6874679999999955,-0.9015450999999999],[1.677156999999994,-0.33400439999999776]]}}},{"ty":"sh","ks":{"a":0,"k":{"c":true,"v":[[99.8608588,13.8283021],[103.293696,15.9548705],[101.668985,17.6790509],[97.6718377,15.7514493]],"i":[[-1.282115200000007,-0.2491538999999996],[-0.4709569999999985,-1.5073957999999994],[1.4122719999999873,0.3507159999999985],[0.738749900000002,1.276356700000001]],"o":[[1.382649200000003,0.2690505999999999],[0.48621599999999887,1.5578798000000003],[-1.3066500000000048,-0.3245831000000017],[-0.8826695999999998,-1.5249167000000003]]}}},{"ty":"st","o":{"a":0,"k":0},"w":{"a":0,"k":0},"c":{"a":0,"k":[0,0,0,0]},"lc":3,"lj":1,"ml":1},{"ty":"fl","o":{"a":0,"k":100},"r":2,"c":{"a":0,"k":[0,0,0,1]}},{"ty":"tr","o":{"a":0,"k":100},"a":{"a":0,"k":[0,0]},"s":{"a":0,"k":[100,100]},"p":{"a":0,"k":[54.153,44.924]},"r":{"a":0,"k":0}}]},{"ty":"gr","nm":"loving doodle shape group","it":[{"ty":"sh","ks":{"a":0,"k":{"c":false,"v":[[188.115129,89.2563347],[168.674691,95.9818309],[156.188249,94.7787546],[149.639138,92.9772506],[145.523199,90.7384796],[145.757106,77.6856487],[146.661568,71.4874795],[147.520317,67.4723861],[150.355999,66.714279],[156.121461,67.79056],[169.292705,72.0388031],[181.472514,78.9411617],[186.596809,83.7795375]],"i":[[1.4545009999999934,-1.8453492999999952],[6.972399999999993,0.057472799999999324],[4.1046599999999955,0.8532036000000005],[2.1381159999999966,0.7320367999999888],[0.6010939999999891,1.5132515999999896],[-0.6527439999999842,4.052717299999998],[-0.32295899999999733,2.0630938999999984],[-0.5533039999999971,1.2347753000000097],[-1.3699019999999962,-0.39964300000001174],[-1.9404230000000098,-0.2962512000000004],[-4.303837000000016,-2.0669448999999958],[-3.795948999999979,-2.8416422999999895],[-1.5438489999999945,-1.8352768999999967]],"o":[[-4.617593999999997,5.857480100000004],[-4.186883999999992,-0.03466120000000217],[-2.212918000000002,-0.4600781999999981],[-1.4123500000000035,-0.48377830000001154],[-1.585406000000006,-3.992874400000005],[0.332160000000016,-2.0613163999999955],[0.20659800000001383,-1.319799500000002],[0.6476979999999912,-1.4465949999999879],[1.8872890000000098,0.5510274999999893],[4.735734999999977,0.7231493000000029],[4.255749999999978,2.0435415000000035],[1.9232060000000217,1.4400772999999987],[1.192689999999999,1.4178582999999918]]}}},{"ty":"sh","ks":{"a":0,"k":{"c":false,"v":[[167.930521,115.273121],[159.704282,113.786236],[141.184037,108.256114],[126.493286,98.9890775],[120.91869,92.7752073],[117.885611,90.8717928],[116.614556,88.127321],[125.094293,90.4931837],[123.768917,87.7614507],[119.653274,83.7587998],[125.590902,86.0686709],[129.873664,86.6428058],[127.777402,83.7072521],[123.970469,78.7237132],[128.992948,80.9642616],[133.427394,85.2480548],[134.678561,87.8399572],[136.950254,90.3459467],[142.412348,93.5724194],[156.36368,97.7919264],[163.316489,98.5521069],[166.662434,100.851906]],"i":[[0.28288599999999064,-4.81823],[0.9522519999999872,0.21359699999999293],[5.899039000000016,2.5323550000000097],[4.332926999999998,4.199361500000009],[1.738275999999999,2.195221799999999],[0.971547000000001,0.9308213999999992],[-0.2730899999999963,1.2525504999999981],[-2.263676999999987,1.8263891],[0.8260970000000043,0.6031676000000061],[1.2345449999999971,1.4688136999999983],[-1.8448410000000024,-1.105017200000006],[-0.6539319999999975,1.696927500000001],[0.593970000000013,0.5779862999999921],[0.7741510000000034,1.9078579999999903],[-1.303707000000017,-1.2051502000000056],[-1.2134690000000035,-1.5416916000000072],[-0.4888899999999978,-0.8576472999999964],[-0.8412360000000092,-0.7139655999999945],[-1.9457649999999944,-0.8377985999999993],[-4.739296999999993,-0.9503741999999988],[-2.359852999999987,-0.07909909999999343],[-0.7002379999999846,-1.689817700000006]],"o":[[-0.037104999999996835,0.6307189999999991],[-6.248713000000009,-1.4015640000000076],[-5.5063229999999805,-2.363492999999991],[-2.019677999999999,-1.9573319999999939],[-0.8712170000000015,-1.100277300000002],[-0.8738879999999938,-0.8377985999999993],[2.1838280000000054,0.5753199000000109],[1.2903500000000037,-1.041027100000008],[-1.553049999999999,-1.134346199999996],[2.119712000000007,0.41090059999999085],[0.8195659999999947,0.4908882999999946],[0.4025100000000066,-1.0448783000000077],[-1.458359999999999,-1.419043600000009],[1.914301000000009,-0.44408070000000066],[1.4470799999999997,1.3378708000000046],[0.6260290000000168,0.795138399999999],[0.5503359999999873,0.9648904000000016],[1.6207290000000114,1.3757910000000066],[4.446318999999988,1.9143756999999937],[2.325123000000019,0.46629930000000286],[1.8341550000000097,0.061620300000001293],[1.8950060000000235,4.572637999999998]]}}},{"ty":"sh","ks":{"a":0,"k":{"c":false,"v":[[113.50608,80.4316017],[109.959474,83.0001003],[106.770555,85.4136595],[103.693842,84.9746149],[99.7883593,83.2056986],[90.8793954,69.6353167],[94.5304883,64.1013429],[101.350612,63.4288524],[104.102883,65.8009363],[106.198551,65.6646607],[113.004129,62.0906855],[116.73329,62.9175227],[117.136098,63.2839856],[117.783202,63.2706541],[118.658277,64.498912],[119.433912,69.703158],[119.477844,71.4397832],[118.641654,73.9872479]],"i":[[2.0564860000000067,-1.923559499999996],[1.108388000000005,-0.9539292000000046],[1.0885009999999937,-0.6787116999999938],[1.0463489999999922,0.6556040999999908],[1.2651187000000021,0.6881917999999985],[-0.8165984000000037,5.356222899999992],[-2.1312883000000085,1.030065499999992],[-2.0707340999999957,-0.7818071999999958],[-0.7483260000000058,-0.9571877000000057],[-0.8887299999999954,1.0762809999999945],[-2.5925730000000016,-0.040586499999996306],[-1.1606319999999926,-0.5347336000000027],[-0.15791699999999764,-0.07435910000000234],[-0.1347640000000041,-0.08532019999999818],[-0.19591199999999276,-0.34098520000000576],[1.4271909999999934,-1.1521211000000022],[0.019590999999991254,-0.17775089999999238],[0.41408799999999246,-0.8502411999999993]],"o":[[-1.0603009999999955,0.9921454999999924],[-0.9754060000000067,0.8392797000000058],[-1.1621159999999975,0.7243343000000095],[-1.228311000000005,-0.7690683000000007],[-4.374187699999993,-2.380675300000007],[0.34611169999999447,-2.270173700000001],[1.9356731999999965,-0.9352653000000046],[1.1680530000000005,0.44111820000000534],[0.8726999999999947,1.1159785999999912],[1.590451999999999,-1.9253368999999978],[1.2885689999999954,0.02044130000000166],[0.15732400000000268,0.07258170000000064],[0.1938339999999954,0.09124529999999709],[0.3398779999999988,0.2150786999999994],[0.7866180000000043,1.3683845999999988],[-0.0008910000000099672,0.0005926999999985583],[-0.10062800000000038,0.9296363000000127],[-1.2434489999999983,2.5542784999999952]]}}},{"ty":"sh","ks":{"a":0,"k":{"c":false,"v":[[115.620449,102.042836],[114.497515,98.7046764]],"i":[[0.9095080000000024,-0.2823279999999926],[-0.9635320000000007,0.5024422000000044]],"o":[[-1.004495999999989,0.31224900000000844],[0.9187099999999901,-0.4793344999999931]]}}},{"ty":"sh","ks":{"a":0,"k":{"c":false,"v":[[99.843274,98.2789634],[98.4977128,101.785393],[98.3973818,98.205493]],"i":[[0.3805450000000121,-1.2993582000000004],[0.8507342999999992,-0.9678519999999935],[-0.755449800000008,0.9500778999999966]],"o":[[-0.3478926999999885,1.1891526],[-0.778899899999999,-0.9243029999999948],[0.4313040999999913,-0.5421398000000011]]}}},{"ty":"sh","ks":{"a":0,"k":{"c":false,"v":[[131.988626,77.4439076],[132.604859,78.6899404]],"i":[[-0.08192700000000741,0.42512049999999135],[0.5924870000000055,-0.6351626999999951]],"o":[[-0.005639999999999645,0.030217800000002626],[-0.8094739999999945,0.8674237999999974]]}}},{"ty":"sh","ks":{"a":0,"k":{"c":false,"v":[[137.00695,67.7523435],[134.465729,67.4552035]],"i":[[0.014841000000018312,-1.2744728999999921],[-0.01810700000001475,1.2092977000000076]],"o":[[-0.013951999999989084,1.2024839000000043],[0.022262999999981048,-1.488366499999998]]}}},{"ty":"sh","ks":{"a":0,"k":{"c":false,"v":[[133.968528,57.7035003],[138.527348,56.989831]],"i":[[-0.5343069999999841,2.3403849999999977],[0.12051600000000917,-1.9185231000000016]],"o":[[0.2520140000000026,-1.1008698000000052],[-0.0605549999999937,0.961927799999998]]}}},{"ty":"sh","ks":{"a":0,"k":{"c":false,"v":[[88.5806906,95.0359007],[86.784531,96.3257788],[85.1700355,97.9918959],[80.2582763,102.231252],[71.1572589,109.867721],[51.6895114,117.887835],[48.9586127,118.206601],[48.6920532,115.227795],[49.0930796,106.865214],[49.3394544,103.063718],[53.0027178,101.120606],[62.9212238,95.4619101],[74.4194957,87.9160939],[86.6969643,82.6745201],[84.6315735,84.6087447],[81.4809472,87.61688],[81.9113608,90.3980871],[84.5621136,89.4192728],[88.1701653,88.5456279],[84.1910677,93.7241],[89.7288557,93.4112588]],"i":[[0.42447680000000787,-0.5101446999999979],[0.5948609999999945,-0.4580045999999953],[0.5446957000000054,-0.5634700000000095],[1.6141986999999887,-1.4211179999999928],[3.290436200000002,-2.215664000000004],[6.769067399999997,-1.8960079999999948],[0.554787999999995,0.47222499999999457],[-0.027605999999998687,0.6775269999999978],[0.035026999999999475,2.773801000000006],[-0.5945642000000007,1.0425080000000122],[-1.1463838999999965,0.43815500000000895],[-3.0779010999999983,2.0805727000000047],[-3.8936087999999955,2.387785199999996],[-4.255156100000008,1.3360933000000017],[0.23212630000000445,-0.186934700000009],[0.8263938999999993,-1.1829311999999987],[-1.6153862000000032,-0.04858539999999323],[-0.710033800000005,0.2449998000000022],[-1.2268265999999954,0.18486070000000154],[-0.6503695000000107,-1.9312620000000038],[-1.2565103000000022,0]],"o":[[-0.49631089999999745,0.5966501000000051],[-0.6239510000000053,0.4799269000000095],[-1.4963544999999954,1.5470241000000016],[-2.967774800000001,2.6123429999999956],[-5.880040899999997,3.958804999999998],[-0.5607247000000015,0.1570130000000063],[-0.5984232000000063,-0.5092560000000077],[0.11220420000000075,-2.777947999999995],[-0.01454500000000536,-1.1393829999999951],[0.6637270000000015,-1.1642679999999928],[3.4842707999999973,-1.3316499999999962],[3.783482400000004,-2.557833599999995],[3.8146502000000027,-2.3392001000000135],[0.1970994999999931,0.4141592000000003],[-1.1131381000000005,0.896160100000003],[-0.5850652999999966,0.8375023000000112],[0.7830555000000032,0.02370000000000516],[1.1728023999999948,-0.4046792000000039],[-1.0546611999999982,1.1613049000000046],[0.6310749000000015,1.8740856999999949],[-0.20600480000000232,0.6535302999999999]]}}},{"ty":"sh","ks":{"a":0,"k":{"c":false,"v":[[45.4571253,100.266513],[38.3107784,102.086681],[31.5301343,102.677702],[24.2668338,97.2263826],[29.5252983,85.6835443],[40.3176921,75.3511887],[52.9273213,67.2350888],[63.695968,63.1091974],[66.8917135,62.7089618],[66.4719861,64.8238996],[65.8343807,68.1045862],[64.3816612,83.445366],[64.2406636,87.8002596],[64.4244057,90.3749794],[60.1989333,93.5102066],[53.1612287,96.7236441]],"i":[[2.6828113999999985,-0.9438564000000014],[2.4126897000000014,-0.5305859999999996],[2.355400600000003,0.29625099999999804],[0.4123063999999985,3.6954384000000005],[-2.6552052999999987,3.1411523000000017],[-3.932494300000002,3.093751900000001],[-4.441866500000003,2.300391099999999],[-3.5730251000000024,1.3132817999999986],[-0.6358244999999982,-0.7275931],[0.23420420000000775,-0.5462871000000007],[0.11784409999999923,-1.143529700000002],[0.2917905000000047,-5.128702200000006],[-0.0834111000000064,-1.4303011000000083],[0.2745740000000012,-0.7735119999999966],[1.2808508999999972,-0.6641952000000089],[2.316514699999999,-1.1373085999999972]],"o":[[-2.337590200000001,0.8220969999999994],[-2.2995948999999953,0.5059970000000078],[-3.2521442,-0.40882700000000227],[-0.48889020000000016,-4.378297499999988],[3.2313659000000037,-3.8219375999999983],[3.928042099999999,-3.0907894999999996],[3.3791905,-1.749956400000002],[0.6797563999999952,-0.24973990000000157],[0.5138244000000043,0.588355],[-0.45683179999998913,1.065023299999993],[-0.5268853999999976,5.106779599999996],[-0.08133329999999717,1.4294121999999874],[0.04600969999999904,0.7921759999999978],[-0.5277758999999946,1.4868852000000032],[-2.293064700000002,1.1888562999999976],[-2.5441886999999994,1.2489954999999924]]}}},{"ty":"sh","ks":{"a":0,"k":{"c":false,"v":[[77.8770512,67.0842969],[80.0519746,67.2371625],[79.9133518,68.9266836],[77.5582483,69.0404439]],"i":[[-1.0795955999999904,0.1487180999999964],[-0.5720044999999914,-0.4156404000000009],[0.6889584999999983,-0.39312560000000474],[0.5375715999999926,0.2820312999999999]],"o":[[0.6417612999999989,-0.08798659999999359],[0.7459512000000075,0.5421400000000034],[-0.5441018000000071,0.3107674999999972],[-0.9157414999999958,-0.4802231999999975]]}}},{"ty":"sh","ks":{"a":0,"k":{"c":false,"v":[[81.4307819,78.9094626],[79.1822427,78.7278606]],"i":[[0.9549240999999995,-1.590276799999998],[-0.16504129999999861,1.6116070000000065]],"o":[[-0.518574000000001,0.8635725999999977],[0.14159130000000175,-1.3799384000000003]]}}},{"ty":"sh","ks":{"a":0,"k":{"c":false,"v":[[80.7272786,54.5807156],[83.3207419,56.2521655],[81.9226406,56.9095469]],"i":[[-1.8665100000000052,-0.01718259999999816],[-0.247265100000007,-1.0721333999999985],[0.6824277999999993,0.2746248999999992]],"o":[[0.8335177000000016,0.32291400000000436],[0.23004849999999522,0.9980705000000043],[-0.5613187000000011,-0.22544720000000495]]}}},{"ty":"sh","ks":{"a":0,"k":{"c":true,"v":[[211.325395,92.6507816],[210.940695,86.7183499],[209.538141,81.3360569],[203.92555,70.4346025],[187.725679,53.4976211],[167.086614,42.3559069],[143.129803,38.0060494],[135.75222,37.3415579],[129.944904,37.3824405],[129.422768,39.334144],[132.35611,39.9595304],[126.388205,49.7639661],[115.998322,53.6727056],[109.806009,54.1244887],[107.036818,54.751949],[106.04568,55.284905],[103.498226,53.2152935],[92.8661243,49.3812096],[86.7901708,40.6749772],[85.7007798,37.3975494],[89.2622282,36.5701196],[92.1958665,36.4376953],[93.674411,35.8016439],[88.7302965,34.668779],[83.6101579,34.8571948],[58.6197613,39.7918522],[16.0889789,64.2079932],[8.33708487,108.8104],[26.9416307,121.897596],[39.1621064,123.991796],[45.001184,122.930032],[47.6893383,122.542535],[49.6036391,122.880558],[50.7716922,121.715994],[52.8955596,121.090311],[58.6001701,119.231631],[64.2828144,116.909317],[68.0437372,116.018786],[68.2740825,118.314141],[68.6899511,121.482844],[69.8547386,128.422234],[73.2018709,140.490622],[78.0420925,149.651896],[82.032767,150.885487],[85.6402251,147.681529],[95.1986681,142.025204],[107.7142,143.621109],[120.656879,147.502593],[133.144805,150.739435],[143.055297,145.231828],[153.02664,139.775175],[158.59619,141.220882],[164.955622,141.850415],[174.354367,138.228744],[173.884177,136.620099],[172.495575,137.079289],[169.957916,134.384587],[161.524188,126.524152],[153.549666,116.214904],[156.72404,116.607437],[160.350792,117.513077],[164.381836,118.410719],[167.636652,119.186897],[169.859663,120.230294],[172.898382,120.243922],[181.051303,119.886939],[206.544838,106.776338],[210.171294,99.5949115]],"i":[[0.5417270000000087,2.1078277999999955],[0.268636999999984,1.9404459999999943],[0.6729290000000105,1.7727675999999946],[2.4153610000000185,3.444217199999997],[6.373086999999998,4.7376504],[7.380254000000008,2.663891399999997],[8.252954999999986,0.5415473999999989],[2.450684999999993,0.3113601000000017],[1.7709289999999953,-0.548657200000001],[-1.211984000000001,-0.636644000000004],[-0.9489869999999883,-0.11998179999999792],[2.9561980000000005,-2.507766799999999],[3.6421880000000044,-0.6209428000000017],[2.0057259999999957,0.14516309999999777],[0.5117469999999997,-1.3061719000000025],[0.46811199999999076,1.3701621999999958],[1.7222469999999959,0.4600781999999981],[3.0725579000000067,2.034653800000001],[1.7795370999999989,3.1799611],[-0.6782721000000009,0.9006039000000001],[-0.9237562999999938,0.08591290000000384],[-0.9780773999999894,0.03792020000000207],[0.22797059999999192,0.8463897999999972],[0.9151481000000103,0.02073740000000157],[1.6931572999999958,-0.1872308000000018],[8.124127300000005,-2.289429900000002],[11.5030213,-11.7905042],[-6.78806484,-14.450840999999997],[-7.421217900000002,-2.491768999999991],[-4.161058799999999,0.2479630000000128],[-1.9475466000000026,0.4049750000000074],[-0.8724035000000043,-0.07110000000000127],[-0.6194986,0.32202500000001066],[-0.5372747999999987,0.2796610000000044],[-0.6966759999999965,0.16916000000000508],[-1.8929286999999988,0.625386000000006],[-1.8780866000000032,0.8422429999999963],[-0.6180141999999904,-1.2644010000000065],[-0.06856919999999889,-0.605242000000004],[-0.1543551999999977,-1.0540620000000018],[-0.41735260000000096,-2.308093999999997],[-1.6231037000000015,-3.9173299999999927],[-2.406456399999996,-2.4882139999999993],[-1.5067439000000036,0.34128099999998085],[-1.040413199999989,1.2587719999999933],[-3.48991070000001,0.7640319999999861],[-4.079132000000001,-1.1630820000000028],[-4.235267000000007,-1.4788859999999886],[-4.280090000000001,0.1771580000000199],[-2.691716999999983,2.3154989999999884],[-3.8873749999999916,-0.27403199999997696],[-1.8801650000000052,-0.3786099999999806],[-2.0989330000000166,-0.15493899999998462],[-0.963829000000004,3.1346340000000055],[0.6141560000000084,0.18604599999997617],[0.5351959999999849,0.0302170000000217],[0.5981269999999768,0.7349989999999877],[2.7086359999999843,2.680481999999998],[2.304642000000001,3.6163389999999964],[-1.0083549999999946,-0.21359700000000714],[-1.2075320000000147,-0.33239399999999364],[-1.3506069999999966,-0.27936499999999853],[-0.9095079999999882,-0.5054049999999961],[-0.9857950000000244,-0.12798100000000545],[-1.0071670000000097,0.006813000000008174],[-2.711010999999985,0.2879560000000083],[-5.760119000000003,8.041149000000004],[-0.797600999999986,2.571164500000009]],"o":[[-0.48681199999998626,-1.8945268000000084],[-0.2606230000000096,-1.88089930000001],[-1.4901209999999878,-3.9244407000000052],[-4.549025,-6.486125399999999],[-6.291753,-4.676918800000003],[-7.826102999999989,-2.8250519999999995],[-2.464636000000013,-0.16145690000000457],[-1.7911129999999957,-0.2275208999999947],[-1.112544000000014,0.3448366000000007],[0.8593429999999955,0.451486899999999],[-1.1463840000000118,3.6421132999999983],[-2.8858469999999983,2.4485170000000025],[-1.9751520000000085,0.3365415000000027],[-1.2680870000000084,-0.09154159999999933],[-0.3550170000000037,0.9074176999999963],[-0.5536010000000005,-1.6199019000000021],[-3.5219689000000045,-0.940893899999999],[-3.1877309999999994,-2.111086499999999],[-0.44020899999999585,-0.7859546000000037],[0.6203889999999888,-0.8235785000000035],[0.9748122000000023,-0.0906529999999961],[0.5666616000000033,-0.021922600000003456],[-0.3440340000000077,-1.2756582000000023],[-1.7017654999999934,-0.03821649999999721],[-8.395436400000008,0.9284515000000013],[-15.762036100000003,4.441399199999999],[-11.04173673,11.317687399999997],[3.5276090300000007,7.510266000000001],[3.9143872,1.3141710000000018],[1.9968214000000017,-0.11909299999999234],[0.8492499999999978,-0.17686199999999985],[0.6604620999999966,0.053917999999995914],[0.439615400000001,-0.2287059999999883],[0.6450263000000049,-0.3353570000000019],[1.9365635999999995,-0.47044699999999295],[1.957341999999997,-0.647012999999987],[0.9483936999999969,-0.42541699999999594],[0.2816982000000081,0.5770969999999949],[0.12021899999999164,1.0585049999999967],[0.34017489999999384,2.320536000000004],[0.7533720999999929,4.1644039999999904],[1.295989800000001,3.1278210000000115],[1.0505054999999999,1.0860580000000084],[1.7139356999999933,-0.38838600000002543],[2.2892055000000084,-2.7699490000000253],[4.273559999999989,-0.9355620000000044],[4.314819999999997,1.2303320000000042],[3.9464459999999946,1.3784580000000233],[3.7324270000000013,-0.15434699999997292],[2.7035899999999913,-2.32557300000002],[1.9303300000000263,0.13598000000001775],[2.064202999999992,0.41564000000002466],[2.6056339999999807,0.1922670000000153],[0.14307500000001028,-0.4651149999999973],[-0.5648799999999881,-0.17093700000000922],[-1.088797999999997,-0.061323999999984835],[-2.4138770000000136,-2.9669560000000104],[-3.0586070000000234,-3.0262069999999994],[1.0418980000000033,-0.27077400000000296],[1.225342000000012,0.25951599999999075],[1.3307199999999852,0.3664630000000102],[1.0077620000000138,0.20796799999999394],[0.7940389999999979,0.44141399999999464],[1.0024189999999749,0.13005400000000122],[2.723774999999989,-0.018367999999995277],[9.579222000000016,-1.0176230000000004],[1.5667050000000131,-2.1872219999999913],[0.6224670000000003,-2.007398699999996]]}}},{"ty":"st","o":{"a":0,"k":0},"w":{"a":0,"k":0},"c":{"a":0,"k":[0,0,0,0]},"lc":3,"lj":1,"ml":1},{"ty":"fl","o":{"a":0,"k":100},"r":2,"c":{"a":0,"k":[0,0,0,1]}},{"ty":"tr","o":{"a":0,"k":100},"a":{"a":0,"k":[0,0]},"s":{"a":0,"k":[100,100]},"p":{"a":0,"k":[54.153,44.924]},"r":{"a":0,"k":0}}]},{"ty":"gr","nm":"loving doodle shape group","it":[{"ty":"sh","ks":{"a":0,"k":{"c":true,"v":[[112.463661,84.028816],[111.233171,91.2948902],[116.55215,100.768716],[133.913328,106.898699],[144.405405,88.737504],[143.501366,82.1822253],[132.965406,80.6332527],[126.736457,81.1667186]],"i":[[4.0395659999999936,-2.928595900000005],[-0.6861090000000019,-2.3623237999999986],[-2.295828,-2.7755015999999983],[-6.373643000000001,4.322701000000009],[-1.2358270000000005,6.543161099999992],[1.7947360000000003,1.5203044999999946],[3.202832000000001,-0.2893425999999977],[2.084420999999992,0.30352890000000343]],"o":[[-2.279520000000005,1.6524148999999966],[1.0104850000000027,3.478317099999998],[4.073070999999999,4.923848000000007],[5.675968999999981,-3.849821999999989],[0.38189700000000926,-2.0221468999999956],[-2.6531149999999855,-2.2470596],[-2.1093270000000075,0.19033360000000243],[-4.843090000000004,-0.7057710999999927]]}}},{"ty":"st","o":{"a":0,"k":0},"w":{"a":0,"k":0},"c":{"a":0,"k":[0,0,0,0]},"lc":3,"lj":1,"ml":1},{"ty":"fl","o":{"a":0,"k":100},"r":2,"c":{"a":0,"k":[0,0,0,1]}},{"ty":"tr","o":{"a":0,"k":100},"a":{"a":0,"k":[0,0]},"s":{"a":0,"k":[100,100]},"p":{"a":0,"k":[31.61,24.385]},"r":{"a":0,"k":0}}]},{"ty":"gr","nm":"loving doodle shape group","it":[{"ty":"el","p":{"a":0,"k":[128,93]},"s":{"a":0,"k":[40,29]}},{"ty":"st","o":{"a":0,"k":0},"w":{"a":0,"k":0},"c":{"a":0,"k":[0,0,0,0]},"lc":3,"lj":1,"ml":1},{"ty":"fl","o":{"a":0,"k":100},"r":2,"c":{"a":0,"k":[0,0,0,1]}},{"ty":"tr","o":{"a":0,"k":0},"a":{"a":0,"k":[0,0]},"s":{"a":0,"k":[100,100]},"p":{"a":0,"k":[31.61,24.385]},"r":{"a":0,"k":0}}]},{"ty":"gr","nm":"loving doodle shape group","it":[{"ty":"rc","s":{"a":0,"k":[256.490028,192.367521]},"r":{"a":0,"k":0},"p":{"a":0,"k":[128.245014,96.1837605]}},{"ty":"st","o":{"a":0,"k":0},"w":{"a":0,"k":0},"c":{"a":0,"k":[0,0,0,0]},"lc":3,"lj":1,"ml":1},{"ty":"fl","o":{"a":0,"k":0},"c":{"a":0,"k":[0,0,0,0]},"r":1},{"ty":"tr","o":{"a":0,"k":100},"a":{"a":0,"k":[0,0]},"s":{"a":0,"k":[100,100]},"p":{"a":0,"k":[31.61,24.385]},"r":{"a":0,"k":0}}]},{"ty":"gr","nm":"loving doodle shape group","it":[{"ty":"sh","ks":{"a":0,"k":{"c":true,"v":[[273.487638,8.02366728],[256.963548,101.547098],[304.967901,205.795415],[2.60086665,192.379839],[39.2532617,108.861089]],"i":[[-34.58490900000001,-25.052074079999997],[-12.104371000000015,-31.228508000000005],[39.859455000000025,-27.12696699999998],[12.70494995,13.415575999999987],[-32.90489668,46.735449]],"o":[[21.29619600000001,15.426204320000002],[17.381779999999992,44.84388799999999],[-67.61688799999999,46.01771600000001],[-8.46996663,-8.94371799999999],[121.5713413,-92.27702210000001]]}}},{"ty":"st","o":{"a":0,"k":0},"w":{"a":0,"k":0},"c":{"a":0,"k":[0,0,0,0]},"lc":3,"lj":1,"ml":1},{"ty":"fl","o":{"a":0,"k":100},"r":2,"c":{"a":0,"k":[0.9568627450980393,0.9568627450980393,0.9568627450980393,1]}},{"ty":"tr","o":{"a":0,"k":100},"a":{"a":0,"k":[0,0]},"s":{"a":0,"k":[100,100]},"p":{"a":0,"k":[0,0]},"r":{"a":0,"k":0}}]},{"ty":"gr","nm":"loving doodle shape group","it":[{"ty":"rc","s":{"a":0,"k":[317,226]},"r":{"a":0,"k":0},"p":{"a":0,"k":[158.5,113]}},{"ty":"st","o":{"a":0,"k":0},"w":{"a":0,"k":0},"c":{"a":0,"k":[0,0,0,0]},"lc":3,"lj":1,"ml":1},{"ty":"fl","o":{"a":0,"k":100},"r":2,"c":{"a":0,"k":[1,1,1,1]}},{"ty":"tr","o":{"a":0,"k":100},"a":{"a":0,"k":[0,0]},"s":{"a":0,"k":[100,100]},"p":{"a":0,"k":[0,0]},"r":{"a":0,"k":0}}]}],"op":32}],"op":32,"w":550,"h":400}